//Numpy array shape (64,)
//Min -0.779212474823
//Max 1.02745914459
//Number of zeros 0

beta_default_t beta2[64] = {-0.249660074711, 0.526773273945, -0.779212474823, 0.554950475693, 0.222864508629, -0.486650496721, -0.604619324207, -0.648523032665, 0.595112323761, 0.504282057285, 0.213204726577, 0.126647129655, -0.535363316536, -0.300178021193, 0.310094624758, 0.223390251398, -0.331166952848, 0.299941539764, -0.0706284865737, -0.634095489979, 0.665080428123, 0.438331216574, -0.179654687643, 0.970383226871, -0.00152721768245, 0.403695195913, -0.154587134719, -0.573221921921, -0.1897713691, 0.147765249014, -0.396582901478, -0.385608106852, -0.220569521189, 0.607381880283, -0.403336435556, 1.01523578167, -0.341720610857, -0.473984390497, 0.928081154823, -0.715015590191, 0.171273261309, -0.269893378019, -0.0687217861414, 0.21510258317, -0.414026945829, 0.160704657435, 0.108704134822, -0.0644669830799, -0.342766731977, -0.081967510283, 0.214111730456, -0.165581583977, 0.974987745285, -0.0897855609655, 0.180694639683, -0.12753161788, -0.253366321325, 0.256984204054, -0.145539268851, 1.02745914459, 0.222104981542, -0.158054322004, 0.585909903049, 0.200272470713};
