//Numpy array shape (64,)
//Min -2.72856068611
//Max 4.4347820282
//Number of zeros 0

mean_default_t mean2[64] = {0.292878568172, -0.284266352654, -0.375635623932, -0.577647030354, -0.32955545187, -0.158744618297, -0.722665429115, 1.29290127754, -2.46816921234, -1.1966189146, 0.0967022925615, -1.24713695049, 1.89084970951, -0.147746741772, 0.581647992134, -1.25196886063, 0.513471961021, -0.896129906178, -0.666075766087, 2.74832773209, 1.83858537674, 1.31496036053, -1.35312962532, 1.55428922176, 0.072677180171, 0.359879970551, 1.00295126438, -1.88530910015, 0.473808765411, 1.7283052206, 3.26529216766, -2.72856068611, 1.84750342369, -0.878325939178, 1.06568026543, -0.293802469969, 0.173337966204, 0.355649292469, 1.0306905508, 0.819780647755, 0.808605849743, 1.25784611702, -0.0130120087415, 0.542020857334, 1.19528615475, 0.0390663295984, 0.617822468281, -1.43134593964, 1.5850161314, -0.59328687191, -0.271688342094, -0.522574961185, -0.62742549181, -0.622836351395, 1.06578111649, -1.17650079727, 1.21607089043, -1.29674518108, 4.4347820282, -1.84241521358, -0.87227088213, 1.29943394661, -0.651723027229, 1.12141633034};
